svm_type c_svc
kernel_type rbf
gamma 0.5
nr_class 2
total_sv 340
rho -0.3120789555948129
label 2 1
nr_sv 208 132
SV
0.6209450562992701 1:-10.0 2:-8.0 
0.5007151885119732 1:-9.9 2:13.0 
0.5737653456176757 1:-9.9 2:-42.0 
0.16239674519519964 1:-9.8 2:-36.0 
0.39587433954539775 1:-9.8 2:40.0 
0.7850797612900609 1:-9.7 2:36.0 
0.5298950326399846 1:-9.7 2:-12.0 
0.18690701077027644 1:-9.7 2:32.0 
0.47210363166780134 1:-9.6 2:-37.0 
0.6358059488272176 1:-9.5 2:-30.0 
0.4682678708186942 1:-9.4 2:-17.0 
0.5122224903197548 1:-9.4 2:-44.0 
0.443901309309894 1:-9.4 2:28.0 
0.3256785333520836 1:-9.3 2:-19.0 
0.4600133411316022 1:-9.3 2:32.0 
0.3398401231924754 1:-9.2 2:-35.0 
0.2985042197483329 1:-9.1 2:-19.0 
0.6433813306204916 1:-9.1 2:34.0 
0.4322516156984778 1:-9.0 2:7.0 
0.599245874622814 1:-9.0 2:-47.0 
0.09227630318957745 1:-8.9 2:13.0 
0.7460102153017818 1:-8.7 2:23.0 
1.0 1:-8.7 2:42.0 
0.5035069314859271 1:-8.6 2:12.0 
0.6267004998486752 1:-8.5 2:-28.0 
0.5253781741187414 1:-8.5 2:40.0 
0.4975174019238007 1:-8.4 2:-11.0 
0.23618862285019626 1:-8.4 2:-35.0 
0.06337392263377647 1:-8.4 2:-15.0 
0.3057691290049002 1:-8.3 2:-7.0 
0.5290492929029843 1:-8.3 2:-14.0 
0.9813192836428586 1:-8.3 2:30.0 
0.5778002942412707 1:-8.2 2:-5.0 
0.4357485929333759 1:-8.2 2:-16.0 
0.3795380057416988 1:-8.1 2:7.0 
0.07789747151327225 1:-8.0 2:-37.0 
0.4666208570235395 1:-7.9 2:-43.0 
0.37823755672108933 1:-7.8 2:20.0 
0.0839460655407062 1:-7.8 2:-6.0 
1.0 1:-7.7 2:28.0 
0.28923123853104515 1:-7.6 2:-8.0 
0.5152501537439735 1:-7.5 2:-38.0 
0.545669142348894 1:-7.4 2:-41.0 
0.6468842716066359 1:-7.3 2:-33.0 
0.5530761529280507 1:-7.3 2:-46.0 
0.3070021752921088 1:-7.1 2:-9.0 
0.6306812388030498 1:-7.0 2:4.0 
0.6060066247075504 1:-6.9 2:21.0 
0.6989945072885804 1:-6.9 2:18.0 
0.6088165741617122 1:-6.8 2:0.0 
0.6504927556158824 1:-6.8 2:-21.0 
0.41161505228568357 1:-6.8 2:-36.0 
0.6051002129164585 1:-6.5 2:-2.0 
0.33351616890219726 1:-6.2 2:-10.0 
1.0 1:-6.1 2:9.0 
0.5042483294158959 1:-6.1 2:-48.0 
0.6295871745169392 1:-6.0 2:-13.0 
0.4607595476754528 1:-5.8 2:-27.0 
0.616497088856084 1:-5.7 2:-6.0 
0.4055790757818442 1:-5.5 2:-35.0 
0.1569148629565522 1:-5.5 2:-10.0 
0.5811214303686356 1:-5.3 2:-41.0 
0.6211309088997474 1:-5.2 2:-38.0 
0.455613336615067 1:-5.1 2:-28.0 
0.8127818993793579 1:-4.9 2:3.0 
0.6237321617250585 1:-4.8 2:-50.0 
0.5848350019837908 1:-4.4 2:-21.0 
0.24663336898282098 1:-4.4 2:-48.0 
0.39317884068199127 1:-4.3 2:-47.0 
0.5764993169223144 1:-4.1 2:-9.0 
0.21939709487219058 1:-4.1 2:-11.0 
0.5574796814195553 1:-4.0 2:-31.0 
0.34962904763083996 1:-4.0 2:-35.0 
0.6231363301425581 1:-3.9 2:-4.0 
0.631909540879716 1:-3.8 2:-45.0 
0.1405430781246734 1:-3.7 2:-11.0 
0.09352076801889067 1:-3.7 2:-31.0 
0.3230126105167923 1:-3.6 2:-34.0 
0.6618908388997554 1:-3.5 2:-24.0 
0.6505422119844756 1:-3.4 2:-17.0 
0.5818847365423885 1:-3.4 2:-14.0 
0.41527215375407656 1:-3.3 2:-12.0 
0.5505515427709649 1:-3.2 2:-42.0 
0.9615798119516358 1:-2.8 2:-6.0 
0.6153942266180985 1:-2.5 2:-20.0 
0.6504922164424438 1:-2.3 2:-29.0 
0.5168261631264448 1:-2.2 2:-33.0 
0.6592892127810407 1:-1.8 2:-26.0 
0.3745859206093724 1:-1.4 2:-42.0 
0.5320850748006268 1:-1.4 2:-37.0 
0.46581580047905663 1:-1.3 2:-40.0 
0.4526199182681158 1:-1.2 2:-15.0 
0.4598402100366641 1:-0.9 2:-17.0 
0.21925656501624327 1:-0.8 2:-41.0 
0.08734320827119564 1:-0.8 2:-15.0 
0.52864569086911 1:-0.4 2:-34.0 
0.48385555927323454 1:-0.2 2:-38.0 
0.46685673166039016 1:-0.1 2:-44.0 
0.39099021576043025 1:-0.0 2:-22.0 
0.5442894178337925 1:0.2 2:-12.0 
0.4364521839925595 1:0.3 2:-21.0 
0.41814593968134517 1:0.6 2:-16.0 
0.4027318180586823 1:0.6 2:-32.0 
0.05928482585010105 1:0.7 2:-13.0 
0.3381111856743147 1:1.0 2:-44.0 
0.46522871297200097 1:1.0 2:-29.0 
0.4218164083953984 1:1.0 2:-18.0 
0.358764648898416 1:1.2 2:-30.0 
0.5711723475442803 1:1.3 2:-24.0 
0.43049830022242164 1:1.4 2:-33.0 
0.541361078172565 1:1.5 2:-9.0 
0.5222921266369782 1:1.7 2:-13.0 
0.6659588817048958 1:1.9 2:-36.0 
0.33518059196860345 1:1.9 2:-46.0 
0.19327246399424816 1:2.1 2:-17.0 
0.10694734093455056 1:2.2 2:-10.0 
0.24609492191605176 1:2.5 2:-45.0 
0.5364620274359305 1:2.6 2:-49.0 
0.4712356475303878 1:2.6 2:-41.0 
0.5015777013454992 1:2.8 2:-18.0 
0.42538479890257325 1:2.8 2:-47.0 
0.5685397127505858 1:3.0 2:-22.0 
0.4731191139957263 1:3.2 2:-10.0 
0.5317991292000284 1:3.3 2:-24.0 
0.4795200219309649 1:3.4 2:-40.0 
0.6526097422379884 1:3.6 2:-15.0 
0.4847062131443306 1:3.7 2:-8.0 
0.5069571694901098 1:3.8 2:-44.0 
0.14908606658236317 1:3.9 2:-49.0 
0.4129128898750986 1:4.0 2:-2.0 
0.6697589997648107 1:4.2 2:-28.0 
0.28280738215853723 1:4.2 2:-1.0 
0.5498537463470876 1:4.4 2:-32.0 
0.35097708736027455 1:4.6 2:-34.0 
0.39481370041678004 1:4.9 2:-35.0 
0.49863094517354656 1:5.0 2:-49.0 
0.5665337767846597 1:5.1 2:-6.0 
0.4199240895545856 1:5.2 2:-12.0 
0.2803422221630659 1:5.2 2:-2.0 
0.4146341881958623 1:5.3 2:-45.0 
0.3389078184759075 1:5.4 2:-21.0 
0.513308919851325 1:5.6 2:-8.0 
0.4380423424712244 1:5.7 2:-13.0 
0.44883592731447625 1:5.8 2:-22.0 
1.0 1:5.9 2:7.0 
0.5296401469830968 1:6.0 2:0.0 
0.568765709044571 1:6.1 2:14.0 
0.5757908129407625 1:6.1 2:-31.0 
0.5500618317747252 1:6.3 2:-43.0 
0.35677137506518386 1:6.3 2:15.0 
1.0 1:6.4 2:10.0 
0.007101099252325297 1:6.4 2:-1.0 
0.5751245844525557 1:6.5 2:-4.0 
0.23790586692209134 1:6.5 2:8.0 
1.0 1:6.6 2:18.0 
0.6112997698121913 1:6.6 2:-25.0 
0.6572024434581477 1:6.7 2:21.0 
0.5015443794593526 1:6.7 2:-46.0 
0.45769430134670924 1:6.8 2:-35.0 
0.5393251240464786 1:6.9 2:-28.0 
0.36234819356591697 1:6.9 2:-20.0 
0.2500960207953211 1:7.0 2:-48.0 
0.4614871619141081 1:7.1 2:-49.0 
0.5826676376748847 1:7.2 2:-40.0 
0.07847309024627754 1:7.3 2:-34.0 
0.630222987569677 1:7.4 2:-17.0 
0.39978159729291207 1:7.5 2:-19.0 
0.6528335063313825 1:7.6 2:-11.0 
0.4070528007498253 1:7.7 2:-33.0 
0.5938532982124904 1:7.7 2:-1.0 
0.5277487343109197 1:7.7 2:17.0 
0.00944819809450171 1:7.8 2:-4.0 
0.2557928125994013 1:7.9 2:-27.0 
0.30053246551105806 1:8.0 2:-44.0 
0.6576351983057237 1:8.0 2:-7.0 
0.32104174864520696 1:8.2 2:-42.0 
0.13294457551853248 1:8.3 2:-25.0 
0.5405725631897766 1:8.3 2:14.0 
0.21762246806952704 1:8.4 2:-32.0 
0.561504669054261 1:8.5 2:30.0 
0.24687492620711338 1:8.5 2:-35.0 
0.6604168699481332 1:8.6 2:39.0 
0.5248623961160716 1:8.6 2:10.0 
0.6210554919011345 1:8.7 2:-4.0 
0.8620887312992578 1:8.7 2:34.0 
0.5673521686413412 1:8.8 2:22.0 
0.36301518031896335 1:8.8 2:-41.0 
0.5514043605454787 1:8.9 2:12.0 
0.5767652530003353 1:9.0 2:20.0 
0.6278105887983542 1:9.0 2:-47.0 
0.5314189307361397 1:9.1 2:-23.0 
0.44766323946879516 1:9.2 2:-25.0 
0.5392530996450238 1:9.2 2:27.0 
0.5191711719133044 1:9.3 2:-44.0 
0.09090637902024967 1:9.3 2:27.0 
0.30492477420816944 1:9.3 2:-27.0 
0.9160108699729523 1:9.4 2:45.0 
0.4258353643351449 1:9.4 2:-29.0 
0.5999159202928093 1:9.4 2:-21.0 
0.5427301617172737 1:9.5 2:36.0 
0.335035472301394 1:9.6 2:-31.0 
0.678012508081274 1:9.7 2:-13.0 
0.5453303056449207 1:9.7 2:-35.0 
0.4465549796182002 1:9.7 2:29.0 
0.36720251669253495 1:9.8 2:-32.0 
0.6450470022181605 1:9.8 2:-39.0 
0.2707888920636202 1:9.9 2:-28.0 
0.47337157979105116 1:10.0 2:38.0 
-1.0 1:-8.0 2:37.0 
-1.0 1:-7.8 2:43.0 
-0.32080568938806076 1:-7.7 2:44.0 
-1.0 1:-7.4 2:31.0 
-1.0 1:-7.3 2:48.0 
-1.0 1:-7.2 2:35.0 
-0.21250981151430898 1:-7.1 2:43.0 
-0.9148837975765041 1:-7.0 2:25.0 
-1.0 1:-6.9 2:28.0 
-0.9025436315275982 1:-6.7 2:45.0 
-0.9157736739159269 1:-6.6 2:28.0 
-0.702878236386077 1:-6.6 2:24.0 
-1.0 1:-6.6 2:39.0 
-0.8182894456599916 1:-6.5 2:33.0 
-1.0 1:-5.9 2:41.0 
-0.5830838967233306 1:-5.6 2:34.0 
-1.0 1:-5.5 2:16.0 
-1.0 1:-5.2 2:9.0 
-0.8510216240717352 1:-5.2 2:43.0 
-0.4658655490486611 1:-5.1 2:23.0 
-0.2019369665408702 1:-5.0 2:45.0 
-0.892272528292289 1:-4.8 2:46.0 
-0.8261079994158318 1:-4.8 2:11.0 
-0.5987258406015269 1:-4.7 2:23.0 
-1.0 1:-4.6 2:21.0 
-0.5799701236393956 1:-4.5 2:33.0 
-0.16814675832763767 1:-4.3 2:9.0 
-0.5552332672460293 1:-4.3 2:12.0 
-0.8909409244658645 1:-4.2 2:30.0 
-0.9766581284120517 1:-4.2 2:15.0 
-1.0 1:-4.2 2:37.0 
-0.5306771526379723 1:-4.0 2:44.0 
-0.474931202333195 1:-3.8 2:9.0 
-0.7254726418384978 1:-3.3 2:29.0 
-0.935441065500799 1:-3.2 2:33.0 
-1.0 1:-3.1 2:0.0 
-0.7211993231484346 1:-3.1 2:7.0 
-0.9019378643573804 1:-3.1 2:13.0 
-0.903526030323954 1:-3.0 2:47.0 
-1.0 1:-3.0 2:3.0 
-0.8389285037619421 1:-2.9 2:6.0 
-0.8014904700830714 1:-2.8 2:43.0 
-0.7479347183160999 1:-2.8 2:22.0 
-0.7644774127445237 1:-2.7 2:20.0 
-0.380333118238376 1:-2.4 2:45.0 
-1.0 1:-2.4 2:10.0 
-0.8904803561041662 1:-2.3 2:31.0 
-0.5619852240480119 1:-2.2 2:46.0 
-0.8841386649443002 1:-2.1 2:-2.0 
-0.32785275574249284 1:-2.0 2:-1.0 
-0.6167889529944777 1:-1.9 2:21.0 
-0.3957624383946526 1:-1.7 2:29.0 
-1.0 1:-1.7 2:-7.0 
-0.9763499879000654 1:-1.6 2:18.0 
-0.62255195894564 1:-1.5 2:44.0 
-1.0 1:-1.4 2:39.0 
-0.9078168224832892 1:-1.2 2:25.0 
-0.39173188817192717 1:-1.2 2:42.0 
-1.0 1:-1.1 2:13.0 
-1.0 1:-1.1 2:4.0 
-0.6853131259303651 1:-1.0 2:28.0 
-0.6714959364271981 1:-0.7 2:41.0 
-0.6427587395556917 1:-0.6 2:24.0 
-0.8224462805266302 1:-0.5 2:34.0 
-0.8104849817032144 1:-0.5 2:30.0 
-0.8533359326523824 1:-0.4 2:17.0 
-0.07115941305619446 1:-0.3 2:33.0 
-1.0 1:-0.2 2:-2.0 
-1.0 1:-0.2 2:15.0 
-1.0 1:-0.1 2:8.0 
-0.7503991745759859 1:-0.0 2:32.0 
-0.6857397340790242 1:0.1 2:42.0 
-1.0 1:0.2 2:49.0 
-1.0 1:0.2 2:27.0 
-1.0 1:0.3 2:11.0 
-0.9534131837836706 1:0.4 2:44.0 
-0.9016807529046993 1:0.5 2:3.0 
-0.5348764476267767 1:0.5 2:34.0 
-0.6887706874202845 1:0.8 2:23.0 
-0.7402968845298958 1:0.9 2:20.0 
-0.2812698331105464 1:0.9 2:2.0 
-0.7373340563437607 1:1.1 2:19.0 
-0.04759124089179637 1:1.2 2:23.0 
-0.5566439188299039 1:1.3 2:22.0 
-0.861192536269352 1:1.4 2:31.0 
-1.0 1:1.5 2:1.0 
-0.7833320652338694 1:1.6 2:48.0 
-1.0 1:1.7 2:-3.0 
-0.6590629990791361 1:1.8 2:46.0 
-0.8696042518684516 1:1.9 2:36.0 
-0.3697609423015918 1:2.0 2:47.0 
-0.29243562648637333 1:2.0 2:45.0 
-0.8615633566816647 1:2.1 2:25.0 
-0.9530247014467528 1:2.3 2:10.0 
-0.007064075457620306 1:2.4 2:26.0 
-0.38357455054810813 1:2.5 2:32.0 
-0.6704444676742539 1:2.5 2:34.0 
-0.7472280886648024 1:2.7 2:44.0 
-0.6206904776265993 1:2.8 2:22.0 
-0.9247902355889883 1:2.9 2:8.0 
-0.8085078800157599 1:3.0 2:37.0 
-0.9415204044915003 1:3.1 2:26.0 
-0.13180596745793977 1:3.1 2:10.0 
-0.8360216661223521 1:3.2 2:18.0 
-0.6271160164837001 1:3.3 2:33.0 
-0.25100899696214113 1:3.5 2:20.0 
-0.2500923525033393 1:3.5 2:22.0 
-0.8199032284732864 1:3.6 2:16.0 
-0.14941780766873403 1:3.6 2:36.0 
-0.009892248480038215 1:3.8 2:8.0 
-1.0 1:3.9 2:31.0 
-1.0 1:4.0 2:43.0 
-1.0 1:4.1 2:14.0 
-0.44605006619646226 1:4.1 2:7.0 
-0.9391103962456732 1:4.1 2:20.0 
-0.5748839885948838 1:4.3 2:17.0 
-1.0 1:4.4 2:35.0 
-1.0 1:4.4 2:46.0 
-1.0 1:4.5 2:23.0 
-0.7749039105308346 1:4.6 2:11.0 
-0.8755517647346293 1:4.7 2:28.0 
-1.0 1:4.8 2:7.0 
-1.0 1:4.9 2:10.0 
-1.0 1:5.0 2:38.0 
-0.5218389711640472 1:5.2 2:48.0 
-0.8919867988611045 1:5.5 2:29.0 
-0.825425992656366 1:5.8 2:48.0 
-1.0 1:6.2 2:18.0 
-0.6621702315182922 1:7.2 2:42.0 
-1.0 1:7.3 2:33.0 
-0.985515213020407 1:7.6 2:41.0 
-1.0 1:8.0 2:44.0 
